svm_type c_svc
kernel_type rbf
gamma 0.25
nr_class 2
total_sv 703
rho 0.59712417799382733
label 1 -1
nr_sv 220 483
SV
1 1:3 2:1 3:5 4:0 
0.29578850378496646 1:3 2:5 3:21 4:0 
0.83651823106873313 1:3 2:3 3:17 4:1 
0.74969814930079992 1:3 2:8 3:6 4:0 
1 1:3 2:7 3:18 4:1 
0.29556595300968974 1:3 2:1 3:16 4:0 
1 1:3 2:28 3:23 4:0 
1 1:2 2:9 3:17 4:0 
1 1:2 2:3 3:25 4:1 
1 1:2 2:10 3:1 4:0 
0.64845800079948923 1:2 2:3 3:27 4:0 
1 1:2 2:17 3:6 4:0 
0.71449074761141862 1:2 2:7 3:0 4:0 
0.71788154812782656 1:2 2:5 3:23 4:1 
1 1:2 2:10 3:17 4:0 
1 1:2 2:3 3:17 4:0 
1 1:2 2:16 3:23 4:0 
1 1:2 2:3 3:75 4:0 
0.10367437574972024 1:3 2:5 3:25 4:0 
1 1:3 2:9 3:18 4:0 
1 1:3 2:9 3:22 4:0 
1 1:3 2:2 3:62 4:0 
0.53288221788069645 1:3 2:5 3:0 4:0 
1 1:3 2:5 3:17 4:0 
0.12077747997180258 1:2 2:5 3:75 4:0 
0.29525446470005939 1:3 2:2 3:6 4:0 
1 1:3 2:2 3:37 4:0 
1 1:3 2:4 3:36 4:0 
0.68385078457598147 1:3 2:7 3:75 4:0 
0.83583700773774705 1:3 2:1 3:0 4:0 
1 1:5 2:1 3:31 4:0 
1 1:3 2:11 3:20 4:0 
1 1:3 2:1 3:32 4:0 
1 1:3 2:7 3:18 4:0 
1 1:3 2:1 3:18 4:0 
0.27583578417215404 1:3 2:9 3:21 4:0 
1 1:3 2:9 3:19 4:0 
1 1:3 2:7 3:18 4:0 
1 1:3 2:4 3:37 4:0 
0.99939755380940409 1:3 2:5 3:25 4:0 
1 1:3 2:17 3:26 4:0 
1 1:3 2:2 3:37 4:0 
1 1:3 2:2 3:87 4:0 
1 1:3 2:17 3:4 4:0 
1 1:3 2:4 3:17 4:0 
1 1:2 2:20 3:1 4:0 
0.25305489177041512 1:2 2:5 3:0 4:0 
1 1:2 2:7 3:50 4:0 
0.11127175319409208 1:1 2:1 3:1 4:0 
1 1:3 2:7 3:14 4:0 
1 1:3 2:5 3:17 4:0 
1 1:3 2:18 3:44 4:0 
1 1:3 2:1 3:32 4:0 
1 1:2 2:4 3:20 4:0 
1 1:3 2:10 3:20 4:0 
1 1:3 2:20 3:41 4:0 
1 1:3 2:9 3:17 4:0 
1 1:3 2:1 3:36 4:0 
1 1:2 2:5 3:13 4:0 
1 1:2 2:4 3:34 4:1 
1 1:2 2:4 3:22 4:0 
1 1:2 2:3 3:17 4:0 
1 1:2 2:6 3:16 4:0 
1 1:2 2:5 3:17 4:0 
1 1:3 2:18 3:34 4:0 
1 1:3 2:10 3:16 4:0 
1 1:3 2:5 3:16 4:1 
1 1:3 2:13 3:16 4:0 
1 1:3 2:22 3:34 4:0 
0.43934135995367801 1:3 2:9 3:16 4:1 
1 1:3 2:9 3:15 4:1 
1 1:3 2:7 3:16 4:0 
1 1:3 2:3 3:14 4:0 
0.15426388768847787 1:3 2:4 3:11 4:0 
1 1:3 2:3 3:36 4:0 
1 1:2 2:1 3:17 4:0 
0.95289961200191553 1:2 2:5 3:29 4:0 
1 1:2 2:5 3:19 4:0 
0.32950993372751741 1:2 2:5 3:11 4:0 
0.76324397493598006 1:3 2:4 3:14 4:0 
1 1:3 2:7 3:13 4:0 
1 1:3 2:3 3:12 4:0 
0.32392580097108326 1:3 2:4 3:27 4:0 
0.39223499718516397 1:2 2:7 3:27 4:0 
1 1:2 2:8 3:28 4:0 
1 1:2 2:8 3:33 4:0 
0.085322267145866507 1:2 2:3 3:22 4:0 
1 1:2 2:5 3:17 4:0 
1 1:2 2:8 3:31 4:0 
0.99614463831511113 1:2 2:7 3:27 4:0 
0.16328977699800315 1:2 2:4 3:12 4:0 
1 1:2 2:4 3:30 4:0 
1 1:3 2:12 3:17 4:0 
0.87034807278363024 1:3 2:7 3:10 4:0 
1 1:3 2:5 3:29 4:0 
1 1:3 2:13 3:38 4:0 
0.89761374044353881 1:3 2:3 3:73 4:1 
0.36069810781853956 1:3 2:3 3:73 4:0 
1 1:3 2:11 3:52 4:0 
0.93026812470064579 1:3 2:6 3:76 4:0 
0.52560362536485072 1:3 2:2 3:15 4:0 
1 1:3 2:3 3:27 4:0 
1 1:3 2:11 3:28 4:0 
0.84659940682772972 1:3 2:6 3:6 4:0 
0.66542184560020512 1:3 2:3 3:5 4:0 
0.70069638600916595 1:3 2:3 3:3 4:0 
1 1:3 2:5 3:65 4:0 
1 1:3 2:3 3:49 4:0 
0.91721502078074568 1:3 2:5 3:11 4:0 
0.73653612080639341 1:3 2:8 3:5 4:0 
0.47101971761257966 1:2 2:3 3:4 4:0 
1 1:2 2:7 3:8 4:0 
1 1:3 2:5 3:19 4:0 
1 1:3 2:1 3:11 4:0 
1 1:3 2:5 3:17 4:0 
1 1:3 2:3 3:29 4:0 
0.89311751195771438 1:3 2:5 3:16 4:0 
1 1:3 2:5 3:19 4:0 
0.31001954092287354 1:3 2:4 3:18 4:0 
1 1:3 2:5 3:18 4:0 
1 1:3 2:4 3:17 4:0 
0.20213912083008068 1:3 2:3 3:17 4:0 
1 1:3 2:5 3:19 4:0 
0.15057298214748485 1:3 2:3 3:17 4:0 
0.21505105232693719 1:3 2:1 3:1 4:0 
1 1:2 2:6 3:17 4:0 
1 1:2 2:3 3:18 4:0 
1 1:2 2:5 3:31 4:0 
0.9572501152247046 1:1 2:1 3:10 4:0 
1 1:3 2:1 3:26 4:0 
0.983140875281449 1:3 2:1 3:23 4:0 
1 1:3 2:2 3:19 4:0 
1 1:3 2:2 3:19 4:0 
1 1:3 2:5 3:35 4:1 
1 1:3 2:2 3:19 4:0 
1 1:3 2:1 3:16 4:0 
0.36570109162483783 1:3 2:3 3:6 4:0 
1 1:3 2:5 3:32 4:1 
0.14861171850139629 1:2 2:4 3:1 4:0 
0.44728198737894304 1:2 2:3 3:16 4:0 
1 1:3 2:1 3:21 4:0 
0.43811864137363388 1:2 2:7 3:1 4:0 
0.23489586848439797 1:3 2:5 3:14 4:0 
0.58602207628306613 1:3 2:1 3:25 4:0 
1 1:3 2:2 3:19 4:0 
1 1:3 2:5 3:23 4:0 
0.29810191667130748 1:3 2:2 3:11 4:0 
1 1:2 2:5 3:22 4:0 
0.86487810813339971 1:3 2:1 3:23 4:0 
1 1:3 2:6 3:16 4:0 
0.6566743359493632 1:3 2:1 3:9 4:0 
0.49949536327991162 1:2 2:1 3:25 4:0 
0.065216787556191896 1:2 2:1 3:15 4:0 
1 1:2 2:1 3:13 4:0 
0.75546513910831425 1:2 2:5 3:14 4:0 
1 1:3 2:5 3:34 4:1 
1 1:3 2:8 3:21 4:0 
1 1:3 2:12 3:28 4:0 
1 1:3 2:13 3:36 4:0 
1 1:3 2:1 3:25 4:1 
0.42758621114208284 1:2 2:9 3:1 4:0 
1 1:3 2:3 3:26 4:0 
1 1:3 2:1 3:31 4:1 
1 1:3 2:5 3:34 4:1 
1 1:3 2:1 3:29 4:0 
1 1:2 2:21 3:34 4:1 
1 1:3 2:8 3:31 4:1 
1 1:3 2:7 3:27 4:0 
1 1:3 2:19 3:28 4:0 
1 1:3 2:3 3:28 4:1 
1 1:3 2:7 3:28 4:1 
0.70293476635471397 1:3 2:5 3:21 4:1 
1 1:3 2:3 3:35 4:0 
1 1:3 2:1 3:33 4:1 
0.65322709630689202 1:3 2:4 3:29 4:0 
1 1:3 2:3 3:42 4:0 
0.37660010568114677 1:2 2:3 3:21 4:0 
1 1:2 2:7 3:21 4:0 
1 1:2 2:1 3:32 4:0 
1 1:2 2:16 3:36 4:0 
1 1:2 2:9 3:29 4:0 
0.37839627976453472 1:2 2:3 3:7 4:0 
1 1:2 2:5 3:27 4:1 
1 1:3 2:4 3:31 4:0 
0.97392322200295089 1:3 2:9 3:21 4:0 
1 1:3 2:5 3:53 4:0 
0.41304535413042376 1:3 2:5 3:4 4:0 
1 1:3 2:1 3:49 4:0 
0.5134128142390858 1:3 2:3 3:23 4:0 
1 1:3 2:7 3:55 4:0 
1 1:3 2:4 3:45 4:0 
1 1:3 2:6 3:45 4:0 
1 1:3 2:4 3:33 4:0 
1 1:3 2:7 3:91 4:0 
0.98498525700757322 1:3 2:7 3:10 4:0 
1 1:3 2:3 3:91 4:0 
0.17515722665490405 1:3 2:3 3:16 4:0 
1 1:3 2:4 3:31 4:0 
1 1:3 2:5 3:32 4:0 
0.89285538593406288 1:3 2:5 3:8 4:0 
0.851882163643915 1:3 2:6 3:73 4:0 
0.38081310054587747 1:3 2:3 3:0 4:0 
0.40801204916849099 1:3 2:5 3:27 4:0 
1 1:2 2:26 3:13 4:0 
0.13216321853262125 1:2 2:3 3:9 4:0 
0.43855139126538373 1:2 2:5 3:6 4:0 
0.012935356641184042 1:2 2:4 3:10 4:0 
0.46553497792837728 1:2 2:5 3:73 4:0 
0.49409300649074561 1:2 2:5 3:4 4:0 
0.98849094355774159 1:1 2:1 3:1 4:0 
0.23115848464729888 1:3 2:5 3:1 4:0 
0.16354452643758455 1:3 2:3 3:8 4:0 
1 1:3 2:1 3:21 4:0 
1 1:3 2:5 3:37 4:0 
0.48068047842559464 1:2 2:3 3:13 4:0 
1 1:2 2:24 3:1 4:0 
0.27957823658383313 1:2 2:3 3:0 4:0 
1 1:2 2:4 3:41 4:1 
0.032037285576337338 1:2 2:5 3:1 4:0 
0.22744667725141854 1:2 2:3 3:8 4:0 
-0.26008042186617919 1:3 2:1 3:42 4:1 
-0.01800743109797924 1:3 2:10 3:31 4:1 
-0.042235575713916451 1:3 2:30 3:33 4:1 
-0.42035737648325827 1:3 2:14 3:39 4:1 
-0.35763071846110567 1:3 2:10 3:32 4:1 
-0.58085026518861294 1:3 2:5 3:32 4:1 
-0.26433825547361739 1:3 2:33 3:33 4:1 
-0.53047294707428827 1:3 2:7 3:32 4:1 
-0.0046884274121268528 1:3 2:27 3:33 4:1 
-0.011763700241602655 1:2 2:23 3:31 4:1 
-1 1:2 2:3 3:17 4:0 
-0.16440970417055201 1:2 2:13 3:37 4:1 
-0.41214357071668756 1:2 2:5 3:32 4:1 
-0.049007850043135535 1:2 2:10 3:46 4:1 
-0.053424084363640587 1:2 2:21 3:32 4:1 
-0.25989735115560597 1:2 2:37 3:27 4:1 
-0.32494531806053789 1:3 2:37 3:44 4:1 
-1 1:3 2:2 3:12 4:0 
-0.65138831161704192 1:3 2:20 3:40 4:0 
-0.15940715133803937 1:3 2:19 3:40 4:0 
-0.0076899878648879726 1:3 2:27 3:32 4:1 
-0.29270647234976849 1:3 2:46 3:44 4:1 
-0.29491588237905653 1:3 2:61 3:44 4:1 
-0.091323601906936142 1:3 2:9 3:40 4:0 
-0.025021435808330578 1:2 2:23 3:44 4:1 
-0.40272343987097514 1:3 2:72 3:44 4:1 
-0.029460785029410852 1:3 2:29 3:44 4:1 
-0.35724381029417229 1:3 2:8 3:46 4:1 
-0.23944762025800603 1:3 2:11 3:40 4:0 
-0.3088766380255617 1:3 2:34 3:44 4:1 
-0.36792598842417129 1:3 2:53 3:44 4:1 
-0.023012981516117217 1:3 2:24 3:44 4:1 
-0.063061156899300488 1:3 2:20 3:44 4:1 
-0.10529368830339994 1:3 2:32 3:44 4:1 
-0.16007420941683223 1:3 2:28 3:44 4:1 
-0.011537861289587996 1:3 2:23 3:44 4:1 
-0.67182452077579979 1:3 2:5 3:50 4:0 
-1 1:3 2:5 3:17 4:0 
-0.3624392248365394 1:3 2:40 3:44 4:1 
-0.080741915869609618 1:3 2:16 3:44 4:1 
-0.059801772447800418 1:3 2:14 3:44 4:1 
-0.10212977572376054 1:3 2:10 3:44 4:1 
-0.28835903184039596 1:3 2:44 3:44 4:1 
-0.35225114236052302 1:3 2:2 3:46 4:1 
-0.29439095886795874 1:3 2:63 3:44 4:1 
-0.22497733177851389 1:2 2:90 3:44 4:1 
-0.011651765696311626 1:2 2:17 3:44 4:1 
-0.22813367988440544 1:2 2:89 3:44 4:1 
-0.14223138609748512 1:2 2:19 3:44 4:1 
-0.084458488718822486 1:2 2:22 3:44 4:1 
-0.19546616777152487 1:2 2:30 3:44 4:1 
-0.26624388627608286 1:3 2:12 3:37 4:1 
-0.82086054791275131 1:3 2:18 3:44 4:1 
-1 1:3 2:8 3:27 4:1 
-0.036613893496068618 1:2 2:23 3:28 4:1 
-0.015796189597303369 1:3 2:28 3:36 4:1 
-0.30729023697779506 1:3 2:20 3:28 4:1 
-0.018351171508530148 1:3 2:22 3:35 4:1 
-0.39593522715130403 1:3 2:63 3:27 4:1 
-0.035429295367142649 1:3 2:21 3:32 4:1 
-0.0038146015759985001 1:3 2:21 3:34 4:1 
-0.93410255392410246 1:3 2:8 3:27 4:1 
-0.86990651180383061 1:3 2:1 3:27 4:1 
-0.37056718344751055 1:3 2:1 3:32 4:1 
-0.33768579387391834 1:3 2:3 3:35 4:1 
-1 1:3 2:5 3:28 4:1 
-0.05206839370087217 1:3 2:15 3:32 4:1 
-1 1:3 2:11 3:28 4:1 
-1 1:3 2:1 3:32 4:1 
-0.40242432529851219 1:3 2:17 3:64 4:1 
-0.35566862042011982 1:3 2:24 3:33 4:0 
-0.082449142366996367 1:2 2:22 3:34 4:1 
-0.02288546207964344 1:2 2:12 3:34 4:1 
-0.10443591047190115 1:2 2:48 3:35 4:1 
-0.2094326365233895 1:2 2:17 3:37 4:1 
-1 1:2 2:5 3:22 4:0 
-0.033721139543648429 1:2 2:25 3:34 4:1 
-0.04828248465747343 1:2 2:22 3:35 4:1 
-0.028844819792654366 1:2 2:20 3:34 4:1 
-0.11080986481363594 1:2 2:13 3:33 4:1 
-0.069942097707859599 1:2 2:25 3:27 4:0 
-0.07202527280010608 1:2 2:21 3:27 4:0 
-0.028130559776350941 1:3 2:18 3:27 4:0 
-0.069085047267166355 1:3 2:4 3:33 4:0 
-0.40287622178792143 1:3 2:111 3:58 4:0 
-0.067374627168868106 1:3 2:14 3:33 4:0 
-0.85585225918153462 1:3 2:6 3:52 4:0 
-1 1:3 2:18 3:27 4:0 
-0.073677081470440955 1:3 2:26 3:27 4:1 
-0.029438052586785678 1:3 2:26 3:27 4:0 
-0.16737681500395468 1:3 2:15 3:33 4:0 
-0.39547519152482474 1:3 2:4 3:52 4:0 
-0.046142130674771305 1:3 2:27 3:27 4:0 
-0.40288189653663831 1:3 2:83 3:27 4:0 
-0.033416259419142599 1:3 2:25 3:27 4:0 
-0.13528707825617522 1:3 2:15 3:27 4:0 
-0.35075420559051601 1:3 2:35 3:30 4:0 
-0.40239353232498293 1:3 2:122 3:30 4:0 
-1 1:3 2:1 3:25 4:0 
-0.40295772617005599 1:3 2:130 3:30 4:0 
-0.40311786395822441 1:3 2:136 3:30 4:0 
-0.26381804248216711 1:3 2:3 3:52 4:0 
-0.0083436346736252467 1:3 2:28 3:27 4:0 
-0.88249584746580534 1:3 2:13 3:27 4:0 
-0.40285293166790948 1:3 2:105 3:30 4:0 
-0.24855561613433044 1:3 2:20 3:27 4:0 
-0.13757923894197793 1:3 2:29 3:27 4:0 
-0.030547897238833673 1:2 2:19 3:27 4:0 
-0.032173459596328925 1:2 2:28 3:27 4:0 
-0.29264427095856038 1:2 2:33 3:25 4:0 
-0.092239903913899163 1:2 2:24 3:27 4:0 
-0.25889994956500839 1:2 2:35 3:25 4:0 
-0.0078540890404500772 1:2 2:29 3:27 4:0 
-0.065486900556047306 1:2 2:27 3:27 4:0 
-0.37112720065844174 1:3 2:4 3:36 4:0 
-1 1:3 2:3 3:36 4:0 
-0.98057527705954428 1:3 2:1 3:31 4:0 
-0.41827867528719376 1:3 2:1 3:31 4:0 
-0.0026778815632325444 1:3 2:3 3:41 4:1 
-1 1:3 2:1 3:48 4:0 
-0.12679317286741465 1:3 2:27 3:36 4:1 
-0.20707256491878648 1:3 2:17 3:36 4:0 
-0.14791717208675817 1:3 2:18 3:48 4:0 
-0.021640855902182822 1:3 2:4 3:32 4:0 
-0.35700657938486946 1:3 2:20 3:36 4:0 
-0.72793498550299962 1:3 2:22 3:34 4:1 
-1 1:3 2:5 3:30 4:0 
-0.56057086847766346 1:2 2:3 3:36 4:0 
-0.014472371433040412 1:3 2:1 3:30 4:0 
-0.2982664018160594 1:3 2:1 3:44 4:0 
-1 1:3 2:1 3:32 4:0 
-0.6434357984947382 1:3 2:4 3:32 4:0 
-0.19038298572222534 1:3 2:20 3:48 4:0 
-1 1:3 2:4 3:36 4:0 
-0.11894145040321985 1:3 2:27 3:45 4:0 
-0.20600176029020081 1:3 2:6 3:31 4:0 
-0.21905349285793352 1:3 2:6 3:33 4:0 
-1 1:3 2:4 3:32 4:0 
-1 1:3 2:5 3:19 4:0 
-0.057399777359750728 1:3 2:24 3:45 4:0 
-0.085324063221618091 1:3 2:25 3:44 4:0 
-0.13271564893153079 1:3 2:13 3:45 4:0 
-0.085321762920710614 1:3 2:6 3:41 4:0 
-0.08977214040435702 1:3 2:27 3:44 4:0 
-1 1:3 2:4 3:32 4:0 
-1 1:3 2:2 3:37 4:0 
-0.5044741138670904 1:3 2:8 3:48 4:0 
-0.70219372769970101 1:3 2:16 3:36 4:0 
-0.91439098654121309 1:3 2:4 3:41 4:0 
-1 1:3 2:4 3:36 4:0 
-0.096162535049381881 1:3 2:22 3:45 4:0 
-0.11195368272486221 1:3 2:11 3:44 4:0 
-0.28987585324216841 1:3 2:22 3:42 4:0 
-1 1:3 2:3 3:30 4:0 
-1 1:3 2:1 3:35 4:0 
-0.19225362670853852 1:2 2:25 3:36 4:0 
-0.49002225763698176 1:2 2:6 3:31 4:0 
-1 1:2 2:6 3:31 4:0 
-0.28300412851059903 1:2 2:17 3:46 4:0 
-0.20041810278134364 1:2 2:5 3:33 4:0 
-0.19177864595937838 1:2 2:22 3:46 4:0 
-0.67361040714878695 1:2 2:4 3:34 4:0 
-0.20933088713001799 1:2 2:15 3:43 4:0 
-0.27498756943995423 1:2 2:3 3:33 4:0 
-0.30118851266102126 1:2 2:10 3:56 4:0 
-0.39560131296876194 1:3 2:37 3:48 4:1 
-0.2801320430044128 1:3 2:50 3:45 4:1 
-0.30883910740277598 1:3 2:27 3:48 4:1 
-1 1:2 2:9 3:29 4:0 
-0.078954259524646284 1:3 2:25 3:47 4:1 
-0.40262274819865201 1:3 2:70 3:49 4:1 
-1 1:3 2:5 3:35 4:1 
-0.028072842813685283 1:3 2:27 3:47 4:1 
-0.25425565103144115 1:2 2:24 3:52 4:1 
-0.011625000839474519 1:3 2:5 3:39 4:1 
-1 1:3 2:5 3:13 4:0 
-0.10329956815997561 1:3 2:18 3:42 4:1 
-1 1:3 2:7 3:28 4:0 
-0.4028510989953093 1:3 2:110 3:46 4:1 
-1 1:3 2:7 3:16 4:0 
-0.30822750097623736 1:3 2:51 3:47 4:1 
-0.057339259020474216 1:3 2:22 3:40 4:1 
-1 1:3 2:1 3:13 4:0 
-0.28398563772724045 1:3 2:23 3:49 4:1 
-0.24567045834484577 1:3 2:16 3:48 4:1 
-0.050420155363334343 1:2 2:7 3:38 4:0 
-0.78151134323384819 1:3 2:1 3:30 4:0 
-0.22483927744585069 1:3 2:5 3:39 4:1 
-0.0066281668137001121 1:3 2:11 3:42 4:1 
-0.13406256827351365 1:3 2:25 3:38 4:0 
-0.088995298683441679 1:3 2:23 3:47 4:1 
-0.2806761737661968 1:2 2:14 3:55 4:0 
-0.13266521357343553 1:3 2:20 3:49 4:1 
-0.34370016535796433 1:3 2:15 3:58 4:1 
-0.2842684118938979 1:3 2:19 3:53 4:1 
-1 1:3 2:5 3:28 4:0 
-1 1:3 2:3 3:5 4:0 
-1 1:3 2:3 3:14 4:0 
-1 1:2 2:4 3:18 4:0 
-0.031955014078564062 1:2 2:17 3:31 4:0 
-0.58047246238702199 1:2 2:5 3:56 4:0 
-0.12199030215356117 1:2 2:18 3:27 4:0 
-0.33241958733066823 1:2 2:18 3:32 4:0 
-1 1:2 2:4 3:21 4:0 
-0.25100310761979333 1:2 2:11 3:55 4:0 
-0.043267885951649598 1:2 2:18 3:42 4:1 
-0.11103989847828739 1:2 2:9 3:39 4:1 
-1 1:2 2:9 3:20 4:0 
-0.16006670516166976 1:2 2:25 3:46 4:1 
-0.14242474596027055 1:2 2:11 3:47 4:1 
-0.16853461882878834 1:2 2:8 3:42 4:1 
-1 1:2 2:4 3:17 4:0 
-0.19112763649854425 1:2 2:25 3:43 4:1 
-0.39273790852068702 1:2 2:29 3:51 4:1 
-1 1:2 2:4 3:17 4:0 
-0.287205369555321 1:2 2:11 3:30 4:0 
-0.084774100239137687 1:2 2:22 3:37 4:1 
-0.54598881325025361 1:2 2:8 3:53 4:1 
-0.19817785821551964 1:2 2:9 3:38 4:0 
-0.36692290771605296 1:2 2:9 3:19 4:0 
-0.17875567809983095 1:2 2:13 3:47 4:1 
-1 1:2 2:5 3:14 4:0 
-1 1:2 2:4 3:18 4:0 
-1 1:2 2:7 3:29 4:0 
-0.085776305019361246 1:2 2:14 3:45 4:1 
-1 1:2 2:4 3:20 4:0 
-0.096925740272287925 1:2 2:13 3:42 4:1 
-0.018551737980577517 1:3 2:25 3:39 4:1 
-0.26535433868454322 1:3 2:23 3:53 4:1 
-0.96094228261076309 1:3 2:11 3:51 4:1 
-0.027621483499880323 1:3 2:23 3:41 4:1 
-0.11552883342142842 1:3 2:28 3:36 4:1 
-0.34801006426888542 1:3 2:1 3:53 4:1 
-0.066148561650170953 1:3 2:17 3:43 4:1 
-0.025819798608259746 1:3 2:18 3:39 4:1 
-0.085761812896866893 1:2 2:18 3:35 4:1 
-0.023836993331772156 1:2 2:16 3:36 4:1 
-1 1:3 2:10 3:14 4:0 
-0.010296883604357656 1:2 2:22 3:41 4:1 
-0.14031408517704341 1:3 2:9 3:42 4:1 
-1 1:3 2:5 3:34 4:1 
-1 1:3 2:5 3:45 4:1 
-0.42889995530941044 1:3 2:20 3:42 4:1 
-0.10962781513916343 1:3 2:22 3:38 4:1 
-0.62855653338641493 1:3 2:3 3:38 4:1 
-0.032371616124154089 1:3 2:23 3:37 4:1 
-0.64372111642887653 1:3 2:3 3:41 4:1 
-0.41943647987088839 1:3 2:5 3:37 4:1 
-0.021066672550939029 1:3 2:5 3:40 4:1 
-0.026200495790203279 1:3 2:27 3:27 4:1 
-0.092166560017256177 1:3 2:8 3:25 4:1 
-0.01536850831201169 1:3 2:2 3:36 4:1 
-0.051603414968855572 1:3 2:1 3:39 4:1 
-0.045060133306551786 1:2 2:25 3:39 4:1 
-0.0095656159250156851 1:2 2:10 3:39 4:1 
-0.15645626064322726 1:2 2:20 3:41 4:1 
-0.069142402668445541 1:2 2:16 3:41 4:1 
-0.0052992445431779157 1:2 2:18 3:39 4:1 
-0.074558749568152963 1:2 2:23 3:37 4:1 
-0.31487359924180247 1:2 2:30 3:40 4:1 
-0.15378525149786856 1:2 2:16 3:36 4:1 
-0.065858893223934928 1:2 2:20 3:34 4:1 
-0.22579354287996456 1:2 2:20 3:51 4:1 
-0.051890926479999183 1:2 2:18 3:39 4:1 
-0.17591929505598469 1:2 2:12 3:40 4:1 
-0.013448141654514226 1:2 2:24 3:41 4:1 
-0.0092978586523581631 1:2 2:24 3:35 4:1 
-0.0337043153089399 1:2 2:14 3:34 4:1 
-1 1:2 2:5 3:20 4:0 
-0.33798490984502932 1:2 2:14 3:51 4:1 
-0.096991025398418612 1:2 2:24 3:41 4:1 
-0.024977355902248689 1:2 2:19 3:51 4:1 
-0.26989215042541836 1:2 2:15 3:36 4:1 
-0.10953876119462881 1:2 2:11 3:44 4:1 
-0.0032946540699562376 1:2 2:19 3:41 4:1 
-0.037513715928570654 1:2 2:13 3:43 4:1 
-0.091256976543561852 1:2 2:1 3:37 4:1 
-0.0031292236640507176 1:2 2:76 3:34 4:1 
-0.19666720897421566 1:3 2:48 3:34 4:1 
-0.29004232213683617 1:2 2:43 3:34 4:1 
-0.23111423917160945 1:3 2:30 3:32 4:1 
-0.91765675971352545 1:3 2:13 3:37 4:1 
-0.32793733027513838 1:3 2:79 3:36 4:1 
-0.3130851374791947 1:2 2:47 3:37 4:1 
-0.30644756458523936 1:2 2:38 3:34 4:1 
-0.2153423604753526 1:3 2:69 3:37 4:1 
-1 1:3 2:5 3:25 4:1 
-0.31250051165171244 1:3 2:47 3:32 4:1 
-0.016059153895707473 1:2 2:65 3:34 4:1 
-0.39090885283904742 1:3 2:74 3:37 4:1 
-0.29666498528547902 1:3 2:68 3:32 4:1 
-0.33999101444637092 1:3 2:82 3:34 4:1 
-0.35544562485486814 1:3 2:57 3:32 4:1 
-0.1335531330765562 1:3 2:67 3:34 4:1 
-0.15323557852241906 1:3 2:65 3:34 4:1 
-0.055495499248763486 1:3 2:25 3:37 4:1 
-1 1:3 2:5 3:34 4:1 
-0.20441362932701423 1:3 2:68 3:37 4:1 
-0.014365046837615468 1:3 2:27 3:31 4:1 
-0.95628546276185689 1:3 2:1 3:37 4:1 
-0.097235045354575333 1:2 2:80 3:34 4:1 
-0.14697507371384388 1:2 2:1 3:34 4:1 
-0.0057672685560987936 1:2 2:47 3:34 4:1 
-0.26504986141643067 1:2 2:69 3:34 4:1 
-0.25906578817970372 1:2 2:40 3:34 4:1 
-0.11116387723806928 1:2 2:32 3:34 4:1 
-0.33107561596810181 1:2 2:59 3:34 4:1 
-0.39046114092124096 1:2 2:54 3:34 4:1 
-0.40267490639677089 1:2 2:89 3:34 4:1 
-0.22370074504923998 1:2 2:45 3:34 4:1 
-0.35898933449690168 1:2 2:76 3:34 4:1 
-0.37432615557490651 1:2 2:58 3:37 4:1 
-0.3487754900798456 1:2 2:50 3:37 4:1 
-1 1:2 2:6 3:16 4:0 
-0.0826349859558759 1:2 2:17 3:34 4:1 
-0.26422652551271358 1:2 2:64 3:34 4:1 
-0.094055344699488647 1:3 2:28 3:30 4:1 
-0.028091033218368224 1:2 2:28 3:29 4:1 
-0.01409217509036776 1:3 2:3 3:30 4:1 
-0.22212354318255736 1:3 2:30 3:29 4:1 
-0.49429398573583949 1:3 2:2 3:29 4:1 
-0.17013271556338633 1:3 2:11 3:29 4:1 
-0.26409348642342839 1:3 2:19 3:24 4:1 
-0.2422525077769789 1:3 2:62 3:31 4:1 
-0.1954226415768282 1:2 2:13 3:29 4:1 
-0.030501323342926129 1:3 2:22 3:31 4:1 
-1 1:3 2:3 3:27 4:1 
-0.059435641081566126 1:2 2:27 3:27 4:1 
-0.31334190772897424 1:3 2:17 3:27 4:1 
-0.71018843172687263 1:3 2:4 3:31 4:1 
-0.012356828812627632 1:3 2:27 3:27 4:1 
-1 1:3 2:3 3:27 4:1 
-1 1:3 2:3 3:27 4:1 
-0.25661645265261163 1:3 2:19 3:30 4:1 
-0.03668832859444255 1:2 2:14 3:31 4:1 
-1 1:3 2:2 3:26 4:1 
-0.96392184858170182 1:3 2:3 3:30 4:1 
-0.067844637406620792 1:3 2:1 3:29 4:1 
-0.18194271818870558 1:3 2:63 3:31 4:1 
-0.07094002820492025 1:3 2:25 3:29 4:1 
-0.25363568747220239 1:3 2:30 3:36 4:1 
-0.067072740667318637 1:3 2:15 3:30 4:1 
-0.08814590131723124 1:3 2:17 3:30 4:1 
-0.0063281725819420162 1:3 2:22 3:31 4:1 
-0.93902172277035301 1:2 2:16 3:24 4:1 
-0.18925082000194349 1:2 2:18 3:24 4:1 
-0.051981663244564581 1:2 2:27 3:31 4:1 
-0.11619548728214683 1:2 2:16 3:29 4:1 
-0.039310735240144237 1:2 2:26 3:31 4:1 
-0.018907615688851753 1:2 2:23 3:30 4:1 
-0.052205498700866895 1:2 2:24 3:29 4:1 
-0.22292059197180281 1:2 2:30 3:27 4:1 
-0.079476711721049129 1:2 2:25 3:31 4:1 
-0.028251989341823932 1:2 2:17 3:30 4:1 
-0.02370430763901437 1:2 2:25 3:29 4:1 
-0.19295676364131745 1:2 2:20 3:29 4:1 
-0.076917405677954437 1:2 2:27 3:29 4:1 
-0.089710182681929374 1:2 2:22 3:31 4:1 
-0.02178252443066131 1:2 2:23 3:31 4:1 
-0.15643842905000335 1:3 2:14 3:56 4:1 
-0.0088670826338841935 1:3 2:6 3:35 4:1 
-0.773310326057983 1:3 2:18 3:34 4:1 
-0.097515853366708302 1:3 2:16 3:46 4:0 
-0.40260516767595617 1:2 2:16 3:98 4:0 
-1 1:3 2:4 3:23 4:0 
-0.16935128006344774 1:3 2:5 3:57 4:0 
-0.16889911941486274 1:3 2:32 3:35 4:1 
-0.27160817815092375 1:3 2:79 3:33 4:1 
-0.1418269896231095 1:3 2:22 3:29 4:0 
-0.21956818857812119 1:3 2:5 3:43 4:1 
-0.079391020983779884 1:3 2:23 3:35 4:1 
-0.099297559816000816 1:3 2:27 3:34 4:1 
-1 1:3 2:8 3:9 4:0 
-0.17784205606356929 1:3 2:14 3:35 4:1 
-0.40263501125416512 1:3 2:100 3:35 4:1 
-0.39218947364228068 1:3 2:6 3:60 4:0 
-0.069723569940625119 1:3 2:21 3:33 4:1 
-0.10714276798807133 1:3 2:12 3:47 4:1 
-0.27581024741306831 1:3 2:12 3:35 4:1 
-0.31089036589076158 1:3 2:20 3:17 4:1 
-0.019023710393019574 1:3 2:25 3:35 4:1 
-0.016772758645437081 1:2 2:16 3:33 4:1 
-0.9726512079207339 1:2 2:21 3:34 4:1 
-0.028302440568295523 1:2 2:22 3:34 4:1 
-0.0099729272448265561 1:2 2:18 3:41 4:1 
-0.97304749554812864 1:2 2:8 3:33 4:1 
-0.67991862297416916 1:2 2:3 3:43 4:1 
-0.27623051532669285 1:2 2:6 3:43 4:1 
-0.052261958766368827 1:2 2:16 3:34 4:1 
-0.4044582279044055 1:3 2:3 3:35 4:0 
-0.42481700370200792 1:3 2:1 3:18 4:0 
-1 1:3 2:1 3:18 4:0 
-1 1:3 2:1 3:18 4:0 
-1 1:3 2:1 3:23 4:0 
-0.32435899778728228 1:3 2:32 3:40 4:0 
-0.22273751574793499 1:3 2:25 3:19 4:0 
-0.032823870553193968 1:3 2:36 3:28 4:0 
-0.19892845522366995 1:3 2:37 3:28 4:0 
-0.65752927409432249 1:3 2:30 3:22 4:0 
-0.15273162267083676 1:3 2:21 3:19 4:0 
-1 1:3 2:6 3:7 4:0 
-0.18907891965255791 1:3 2:31 3:44 4:0 
-1 1:3 2:8 3:12 4:0 
-0.052059470713412589 1:3 2:21 3:26 4:0 
-1 1:3 2:5 3:18 4:0 
-1 1:3 2:5 3:12 4:0 
-0.23933182326634964 1:3 2:1 3:19 4:1 
-0.25376637201342817 1:3 2:23 3:26 4:1 
-0.12578301585568863 1:3 2:24 3:30 4:0 
-0.074262485076317233 1:3 2:27 3:31 4:1 
-0.20570751294948406 1:3 2:11 3:34 4:0 
-0.50027556387019034 1:3 2:1 3:19 4:0 
-0.0077445779963616268 1:3 2:16 3:39 4:1 
-0.40066780875866082 1:3 2:8 3:34 4:0 
-1 1:3 2:1 3:19 4:0 
-0.093952118236536999 1:3 2:25 3:40 4:1 
-1 1:3 2:1 3:19 4:0 
-1 1:3 2:1 3:22 4:1 
-0.98102849260559188 1:3 2:1 3:19 4:0 
-0.021766681816695655 1:2 2:21 3:19 4:0 
-0.36495710544995097 1:2 2:39 3:19 4:0 
-0.073796377180877573 1:2 2:23 3:19 4:0 
-0.35044128828305732 1:2 2:32 3:19 4:0 
-0.085652922809831861 1:2 2:22 3:19 4:0 
-0.247048119750056 1:2 2:29 3:19 4:0 
-0.085562935439233795 1:2 2:23 3:19 4:0 
-0.18776179476512028 1:2 2:19 3:19 4:0 
-0.21298892530453378 1:2 2:13 3:19 4:0 
-0.042163824319854007 1:2 2:24 3:19 4:0 
-0.35794231064123361 1:2 2:36 3:19 4:0 
-0.2266314229973323 1:2 2:27 3:19 4:0 
-0.3439458172346781 1:2 2:17 3:19 4:1 
-0.0084234319633404598 1:2 2:26 3:19 4:0 
-0.41921733445719467 1:2 2:25 3:22 4:1 
-0.28165145726791035 1:2 2:14 3:24 4:0 
-1 1:2 2:9 3:21 4:0 
-0.74296930884968249 1:3 2:6 3:37 4:0 
-0.11128448163376374 1:3 2:12 3:42 4:0 
-1 1:3 2:5 3:16 4:0 
-1 1:3 2:3 3:16 4:0 
-0.04356574024996876 1:3 2:21 3:33 4:1 
-1 1:3 2:6 3:17 4:0 
-1 1:3 2:10 3:17 4:0 
-1 1:3 2:25 3:13 4:0 
-1 1:3 2:6 3:18 4:0 
-1 1:3 2:6 3:17 4:1 
-0.33830298391669689 1:3 2:9 3:18 4:0 
-0.98361826248464512 1:3 2:1 3:33 4:1 
-1 1:3 2:10 3:18 4:0 
-0.998332360905692 1:3 2:12 3:18 4:0 
-0.055687526812926491 1:3 2:19 3:33 4:1 
-0.28614873558166903 1:3 2:7 3:18 4:0 
-0.66659427903249857 1:3 2:9 3:30 4:0 
-0.51822911309832742 1:3 2:12 3:18 4:0 
-1 1:3 2:6 3:17 4:0 
-0.35744298991194007 1:3 2:9 3:25 4:0 
-1 1:3 2:5 3:17 4:0 
-0.31843590587811804 1:3 2:13 3:30 4:0 
-0.4018384572682826 1:3 2:8 3:30 4:0 
-1 1:3 2:3 3:17 4:0 
-0.075002629862192888 1:3 2:7 3:17 4:0 
-1 1:3 2:8 3:17 4:0 
-1 1:3 2:6 3:17 4:1 
-1 1:3 2:5 3:18 4:0 
-0.87093259990052152 1:3 2:8 3:18 4:0 
-1 1:3 2:7 3:22 4:0 
-1 1:3 2:6 3:18 4:0 
-1 1:3 2:9 3:18 4:0 
-1 1:3 2:3 3:17 4:0 
-1 1:3 2:9 3:18 4:0 
-1 1:2 2:9 3:21 4:0 
-0.020292156176924016 1:2 2:18 3:40 4:0 
-0.16885283306156185 1:2 2:28 3:33 4:1 
-1 1:2 2:8 3:13 4:0 
-0.13339323986543086 1:2 2:13 3:24 4:0 
-0.24315467467128754 1:2 2:26 3:40 4:0 
-0.0052926823672099638 1:2 2:21 3:33 4:1 
-0.1260749096288 1:2 2:21 3:40 4:0 
-0.11449081941914994 1:2 2:17 3:40 4:0 
-0.30358934377868951 1:2 2:17 3:52 4:0 
-0.17459075301350582 1:2 2:15 3:40 4:0 
-0.066307927177693043 1:2 2:26 3:33 4:1 
-0.40316080687333844 1:2 2:14 3:85 4:0 
